<PMML xmlns="http://www.dmg.org/PMML-4_1" version="4.1">

    <Header copyright="Barclays. Copyright 2015" description="KamanjaElasticSearch">
     <Application name="KamanjaElasticSearch" version="00.01.00"/>
    </Header>

  <!-- ===================================================================================================== -->
<DataDictionary numberOfFields="7">
  <DataField name="msg" displayName="msg" optype="categorical" dataType="ISightIndicator"/>
  <DataField name="gCtx" displayName="globalContext" optype="categorical" dataType="EnvContext"/>
  <DataField name="parameters" displayName="parameters" dataType="container">
    <Value value="gCtx" property="valid"/>
    <Value value="msg" property="valid"/>
  </DataField>
  <DataField name="reportId" displayName="reportId" optype="categorical" dataType="String"/>
  <DataField name="title" displayName="title" optype="categorical" dataType="String"/>
  <DataField name="ThreatScape" displayName="ThreatScape" optype="categorical" dataType="String"/>
  <DataField name="publishDate" displayName="publishDate" optype="categorical" dataType="String"/>
  <DataField name="productType" displayName="productType" optype="categorical" dataType="String"/>
  <DataField name="reportLink" displayName="reportLink" optype="categorical" dataType="String"/>
  <DataField name="webLink" displayName="webLink" optype="categorical" dataType="String"/>
  <DataField name="domain" displayName="domain" optype="categorical" dataType="String"/>
  <DataField name="networkIdentifier" displayName="networkIdentifier" optype="categorical" dataType="String"/>
  <DataField name="ips" displayName="ips" optype="categorical" dataType="String"/>
  <DataField name="count" displayName="count" optype="categorical" dataType="Long"/>

  <DataField name="predictedField" displayName="predictedField" optype="continuous" dataType="Integer"/>

<!--
  <DataField name="UDFSearchPath" displayName="UDFSearchPath" dataType="container">
    <Value value="com.barclays.udf.CustomUDFs" property="valid"/>
  </DataField>   -->

</DataDictionary>


<!-- ===================================================================================================== -->
<TransformationDictionary>

<!-- call udf This udf still not ready
<DerivedField name="elasticSearchUDF" dataType="Integer" optype="categorical">
      <Apply function="queryElasticSearch">
       <FieldRef field="msg.ips"/>
       <FieldRef field="msg.domain"/>
     </Apply>
 </DerivedField>  -->


 <!-- call queryElasticSearch udf and put the count in Derived field -->
  <DerivedField name="elasticSearch" dataType="boolean" optype="categorical">
   <Apply function="Put">
        <Constant dataType="string">count</Constant>
        <Constant dataType="Long">12345678904L</Constant>
        <!--   <FieldRef field="elasticSearchUDF"/> -->
   </Apply>
  </DerivedField>

  <!-- test long constant handling -->
  <DerivedField name="gtTest" dataType="boolean" optype="categorical">
      <Apply function="if">
          <Apply function="and">
              <Apply function="GreaterThan">
                  <FieldRef field="count"/>
                  <Constant dataType="Long">12345678904L</Constant>
              </Apply>
              <Apply function="GreaterThan">
                  <Constant dataType="Long">12345678903L</Constant>
                  <Constant dataType="Long">12345678904L</Constant>
              </Apply>
          </Apply>
          <Constant dataType="boolean">true</Constant>
          <Constant dataType="boolean">false</Constant>
      </Apply>
  </DerivedField>

  <!-- check if the count is greater than 1 -->
  <DerivedField name="checkIfAlerts" dataType="boolean" optype="categorical">
      <Apply function="if">
          <Apply function="GreaterThan">
              <FieldRef field="count"/>
              <Constant dataType="Long">1</Constant>
          </Apply>
          <Constant dataType="boolean">true</Constant>
          <Constant dataType="boolean">false</Constant>
      </Apply>
  </DerivedField>


   <!-- Prepare output data if there is any alert -->
   <DerivedField name="prepareOutput" dataType="boolean" optype="categorical">
     <Apply function="and">
          <Apply function="Put">
             <Constant dataType="string">reportId</Constant>
                 <FieldRef field="msg.reportid"/>
           </Apply>
            <Apply function="Put">
             <Constant dataType="string">title</Constant>
                 <FieldRef field="msg.title"/>
           </Apply>
            <Apply function="Put">
             <Constant dataType="string">ThreatScape</Constant>
                 <FieldRef field="msg.threatscape"/>
           </Apply>
            <Apply function="Put">
             <Constant dataType="string">publishDate</Constant>
                 <FieldRef field="msg.publishdate"/>
           </Apply>
            <Apply function="Put">
             <Constant dataType="string">productType</Constant>
                 <FieldRef field="msg.producttype"/>
           </Apply>
                    <Apply function="Put">
             <Constant dataType="string">reportLink</Constant>
                 <FieldRef field="msg.reportlink"/>
           </Apply>
                    <Apply function="Put">
             <Constant dataType="string">webLink</Constant>
                 <FieldRef field="msg.weblink"/>
           </Apply>
                    <Apply function="Put">
             <Constant dataType="string">domain</Constant>
                 <FieldRef field="msg.domain"/>
           </Apply>
                    <Apply function="Put">
             <Constant dataType="string">networkIdentifier</Constant>
                 <FieldRef field="msg.networkidentifier"/>
           </Apply>
                    <Apply function="Put">
             <Constant dataType="string">ips</Constant>
                 <FieldRef field="msg.ips"/>
           </Apply>
         </Apply>
   </DerivedField>
  <!-- ================================================================================ -->

  <!-- Rule Starts -->
  <DerivedField name="scoreCheck" dataType="boolean" optype="categorical">
    <Apply function="and">
      <FieldRef field="elasticSearch"/>  <!-- call queryElasticSearch udf and put the count in Derived field -->
      <FieldRef field="checkIfAlerts"/>       <!-- check if the count is greater than ZERO -->
      <FieldRef field="prepareOutput"/>       <!-- Prepare output data if there is any alert -->
    </Apply>
  </DerivedField>

</TransformationDictionary>


<!-- ===================================================================================================== -->
<RuleSetModel modelName="DemoModel" functionName="classification" algorithmName="RuleSet">

  <!--output message is defined here-->
  <MiningSchema>
        <MiningField name="reportId" usageType="supplementary"/>
        <MiningField name="title" usageType="supplementary"/>
        <MiningField name="ThreatScape" usageType="supplementary"/>
    <MiningField name="publishDate" usageType="supplementary"/>
        <MiningField name="productType" usageType="supplementary"/>
        <MiningField name="reportLink" usageType="supplementary"/>
        <MiningField name="webLink" usageType="supplementary"/>
        <MiningField name="domain" usageType="supplementary"/>
        <MiningField name="networkIdentifier" usageType="supplementary"/>
        <MiningField name="ips" usageType="supplementary"/>
        <MiningField name="count" usageType="supplementary"/>
    <MiningField name="predictedField" usageType="predicted"/>
  </MiningSchema>

  <RuleSet defaultScore="0">
    <RuleSelectionMethod criterion="firstHit"/>
        <!-- Rule Starts -->
    <SimpleRule id="scoreCheckRule" score="1b">
            <SimplePredicate field="scoreCheck" operator="equal" value="true"/>
    </SimpleRule>

  </RuleSet>
</RuleSetModel>

</PMML>
