
<!--
	Medication contra indicator rule set
-->

<PMML xmlns="http://www.dmg.org/PMML-4_1" version="4.1">

	<Header copyright="Cigna Corp. 2014" description="Industry established measures to determining contra indicative drug combinations in Medication input feeds">
		<Application name="ContraIndicator" version="00.01.00"/>
	</Header>

	<DataDictionary numberOfFields="3">

		<DataField name="msg" displayName="msg" optype="categorical" dataType="Beneficiary"/>
		<DataField name="gCtx" displayName="globalContext" optype="categorical" dataType="EnvContext"/>
	    <DataField name="parameters" displayName="parameters" dataType="container">
	       <Value value="gCtx" property="valid"/>
	       <Value value="msg" property="valid"/>
	    </DataField>
	</DataDictionary>

	<TransformationDictionary>

	  	<!-- Derived Fields -->

		<!-- Obtain the conflict medical code lookup table -->
		<DerivedField name="conflictMedCds" dataType="ArrayOfConflictMedicalCode" optype="categorical">
			<Apply function="GetArray">
				<FieldRef field="gCtx"/>
			    <Constant dataType="string">Dimensions</Constant>
			    <Constant dataType="string">ConflictMedCds</Constant>
			</Apply>
		</DerivedField>


		<!-- Project the code pair from the conflict med codes and create an array similar to the member's
			"MedicationIdPairStrings" for set intersection in the ContraIndicative computation -->

		<DerivedField name="conflictMedCdsSet" dataType="ArrayOfString" optype="categorical">
			<Apply function="ToSet">
				<Apply function="MakeStrings">
					<Apply function="ContainerMap">
			       		<FieldRef field="conflictMedCds"/>
			 			<Constant dataType="ident">Code1</Constant> 
			 			<Constant dataType="ident">Code2</Constant> 
					</Apply>
		       		<Constant dataType="string">,</Constant>
				</Apply>
			</Apply>
		</DerivedField>


		<!-- Create a set of medication identifiers from the member's history -->
		<DerivedField name="AllUniqueHistoryMedicationIdentifiers" dataType="ArrayOfString" optype="categorical">
			<Apply function="ToArray">
				<Apply function="ToSet">
					<Apply function="ContainerMap">
			       		<FieldRef field="msg.Medications"/>
			 			<Constant dataType="ident">MedicationIdentifier</Constant> 
					</Apply>
				</Apply>
			</Apply>
		</DerivedField>
	

		  <!-- Current event Medication Record -->
		<DerivedField name="CurrentMedicationRecord" dataType="Medication" optype="categorical">
			<Apply function="Last">
	       		<FieldRef field="msg.Medications"/>
			</Apply>
		</DerivedField>

		   <!--Making ordered pairs between current & history of MedicationIdentifiers -->
		<DerivedField name="MedicationIdOrderedPairs" dataType="ArrayofTupleOfStringString" optype="categorical">
			<Apply function="MakeOrderedPairs">
	       		<FieldRef field="CurrentMedicationRecord.MedicationIdentifier"/>
	       		<FieldRef field="AllUniqueHistoryMedicationIdentifiers"/>
			</Apply>
		</DerivedField>

		  <!--Making Strings from ordered pairs -->
		<DerivedField name="MedicationIdPairStrings" dataType="ArrayOfString" optype="categorical">
			<Apply function="MakeStrings">
	       		<FieldRef field="MedicationIdOrderedPairs"/>
	       		<Constant dataType="string">,</Constant>
			</Apply>
		</DerivedField>


  		<!-- collect the set of contra indicative pairs -->
		<DerivedField name="ContraIndicative" dataType="ArrayOfString" optype="categorical">
			<Apply function="ToArray">
				<Apply function="Intersect">
					<FieldRef field="MedicationIdPairStrings"/>
					<FieldRef field="conflictMedCdsSet"/>
				</Apply>
			</Apply>
		</DerivedField>
		
		<!-- determine if this member is taking questionable drug combinations -->
		<DerivedField name="IsContraIndicative" dataType="integer" optype="categorical">
			<Apply function="if">
				<Apply function="greaterThan">
					<Apply function="CollectionLength">
						<FieldRef field="ContraIndicative"/>
					</Apply>
					<Constant dataType="integer">0</Constant>    
				</Apply>
				<Constant dataType="integer">1</Constant> 
				<Constant dataType="integer">0</Constant>       
			</Apply>
		</DerivedField>
		
	</TransformationDictionary>

	<RuleSetModel modelName="ContraIndicator" functionName="classification" algorithmName="RuleSet">
	    <MiningSchema>

			<MiningField name="conflictMedCds" usageType="active"/>
			<MiningField name="AllUniqueHistoryMedicationIdentifiers" usageType="active"/>
			<MiningField name="CurrentMedicationIdentifier" usageType="active"/>
			<MiningField name="MedicationIdOrderedPairs" usageType="active"/>
			<MiningField name="MedicationIdPairStrings" usageType="active"/>

			<MiningField name="ContraIndicative" usageType="supplementary"/>
			<MiningField name="IsContraIndicative" usageType="predicted"/>
	    </MiningSchema>
	
		<RuleSet defaultScore="0" >  
			<RuleSelectionMethod criterion="firstHit"/>
			<SimpleRule id="RULE1" score="1">
				<SimplePredicate field="IsContraIndicative" operator="equal" value="1"/>
			</SimpleRule>
	    </RuleSet> 
	</RuleSetModel>
</PMML>
